<?xml version="1.0"?>
<opencv_storage>
<stage15>
  <maxWeakCount>26</maxWeakCount>
  <stageThreshold>-1.9610123634338379e+00</stageThreshold>
  <weakClassifiers>
    <_>
      <internalNodes>
        0 -1 160896 -1.1053668335080147e-02</internalNodes>
      <leafValues>
        1.8726591020822525e-02 -7.4672633409500122e-01</leafValues></_>
    <_>
      <internalNodes>
        0 -1 111549 -1.8784297863021493e-03</internalNodes>
      <leafValues>
        3.4807499498128891e-02 -4.9600628018379211e-01</leafValues></_>
    <_>
      <internalNodes>
        0 -1 57077 2.6298877783119678e-03</internalNodes>
      <leafValues>
        -5.8491778373718262e-01 1.1663313210010529e-01</leafValues></_>
    <_>
      <internalNodes>
        0 -1 9527 -2.2666263394057751e-03</internalNodes>
      <leafValues>
        1.2779021263122559e-01 -5.1411628723144531e-01</leafValues></_>
    <_>
      <internalNodes>
        0 -1 114096 -6.0135213425382972e-04</internalNodes>
      <leafValues>
        -4.1871088743209839e-01 1.5328826010227203e-01</leafValues></_>
    <_>
      <internalNodes>
        0 -1 93178 3.8933641917537898e-05</internalNodes>
      <leafValues>
        -2.7749210596084595e-01 2.1365061402320862e-01</leafValues></_>
    <_>
      <internalNodes>
        0 -1 114448 2.8735026717185974e-03</internalNodes>
      <leafValues>
        9.7114875912666321e-02 -7.6265746355056763e-01</leafValues></_>
    <_>
      <internalNodes>
        0 -1 93366 -5.6120850786101073e-05</internalNodes>
      <leafValues>
        1.6418498754501343e-01 -3.0123731493949890e-01</leafValues></_>
    <_>
      <internalNodes>
        0 -1 138460 -1.3093194866087288e-04</internalNodes>
      <leafValues>
        -5.7017183303833008e-01 8.6996592581272125e-02</leafValues></_>
    <_>
      <internalNodes>
        0 -1 2424 -6.5737068653106689e-03</internalNodes>
      <leafValues>
        3.6240792274475098e-01 -1.4117680490016937e-01</leafValues></_>
    <_>
      <internalNodes>
        0 -1 49389 5.4823579266667366e-03</internalNodes>
      <leafValues>
        -1.6433943808078766e-01 2.9975777864456177e-01</leafValues></_>
    <_>
      <internalNodes>
        0 -1 120901 2.7316439081914723e-04</internalNodes>
      <leafValues>
        8.8274747133255005e-02 -5.5705004930496216e-01</leafValues></_>
    <_>
      <internalNodes>
        0 -1 78876 -1.0329975339118391e-04</internalNodes>
      <leafValues>
        1.3507029414176941e-01 -3.2417586445808411e-01</leafValues></_>
    <_>
      <internalNodes>
        0 -1 72151 -4.4758748263120651e-03</internalNodes>
      <leafValues>
        3.2223069667816162e-01 -1.4921221137046814e-01</leafValues></_>
    <_>
      <internalNodes>
        0 -1 121045 -1.7188186757266521e-04</internalNodes>
      <leafValues>
        -4.8127308487892151e-01 1.0076154023408890e-01</leafValues></_>
    <_>
      <internalNodes>
        0 -1 85060 1.4359657652676105e-02</internalNodes>
      <leafValues>
        4.6806018799543381e-02 -8.6585336923599243e-01</leafValues></_>
    <_>
      <internalNodes>
        0 -1 136249 -4.7914535389281809e-04</internalNodes>
      <leafValues>
        2.7288740873336792e-01 -1.6904658079147339e-01</leafValues></_>
    <_>
      <internalNodes>
        0 -1 132758 1.3915728777647018e-04</internalNodes>
      <leafValues>
        1.3810341060161591e-01 -3.4339538216590881e-01</leafValues></_>
    <_>
      <internalNodes>
        0 -1 65608 2.1993699192535132e-04</internalNodes>
      <leafValues>
        9.0156100690364838e-02 -4.5751383900642395e-01</leafValues></_>
    <_>
      <internalNodes>
        0 -1 148135 -2.1549751982092857e-03</internalNodes>
      <leafValues>
        6.7667871713638306e-01 -7.9826459288597107e-02</leafValues></_>
    <_>
      <internalNodes>
        0 -1 127959 9.5915107522159815e-04</internalNodes>
      <leafValues>
        -3.5286343097686768e-01 1.4541009068489075e-01</leafValues></_>
    <_>
      <internalNodes>
        0 -1 35866 -1.4464157866314054e-03</internalNodes>
      <leafValues>
        1.4494529366493225e-01 -3.2016751170158386e-01</leafValues></_>
    <_>
      <internalNodes>
        0 -1 52460 -7.5325090438127518e-04</internalNodes>
      <leafValues>
        1.2322457879781723e-01 -3.4879356622695923e-01</leafValues></_>
    <_>
      <internalNodes>
        0 -1 38151 1.1537959799170494e-03</internalNodes>
      <leafValues>
        -1.4157162606716156e-01 3.7281298637390137e-01</leafValues></_>
    <_>
      <internalNodes>
        0 -1 157703 2.8430866077542305e-02</internalNodes>
      <leafValues>
        -1.0184322297573090e-01 4.5633345842361450e-01</leafValues></_>
    <_>
      <internalNodes>
        0 -1 54807 5.1353208720684052e-02</internalNodes>
      <leafValues>
        -3.1037276983261108e-01 1.4384567737579346e-01</leafValues></_></weakClassifiers></stage15>
</opencv_storage>
