<?xml version="1.0"?>
<opencv_storage>
<stage13>
  <maxWeakCount>27</maxWeakCount>
  <stageThreshold>-2.0386331081390381e+00</stageThreshold>
  <weakClassifiers>
    <_>
      <internalNodes>
        0 -1 55188 2.3024316760711372e-04</internalNodes>
      <leafValues>
        -8.4190106391906738e-01 -4.7242647409439087e-01</leafValues></_>
    <_>
      <internalNodes>
        0 -1 84895 1.8354080384597182e-04</internalNodes>
      <leafValues>
        -5.1943969726562500e-01 -4.6809529885649681e-03</leafValues></_>
    <_>
      <internalNodes>
        0 -1 98857 6.3278088346123695e-03</internalNodes>
      <leafValues>
        9.9976569414138794e-02 -6.6093450784683228e-01</leafValues></_>
    <_>
      <internalNodes>
        0 -1 86154 7.5026066042482853e-04</internalNodes>
      <leafValues>
        -2.4665953218936920e-01 2.9249727725982666e-01</leafValues></_>
    <_>
      <internalNodes>
        0 -1 133391 -1.8413347424939275e-04</internalNodes>
      <leafValues>
        -4.9900478124618530e-01 9.7498670220375061e-02</leafValues></_>
    <_>
      <internalNodes>
        0 -1 138766 -9.1061345301568508e-05</internalNodes>
      <leafValues>
        -4.6776705980300903e-01 1.6034951806068420e-01</leafValues></_>
    <_>
      <internalNodes>
        0 -1 80037 8.0044189235195518e-04</internalNodes>
      <leafValues>
        -5.0742673873901367e-01 1.1516597121953964e-01</leafValues></_>
    <_>
      <internalNodes>
        0 -1 75021 2.4584531784057617e-02</internalNodes>
      <leafValues>
        4.5950897037982941e-02 -8.6065614223480225e-01</leafValues></_>
    <_>
      <internalNodes>
        0 -1 117103 -1.2509247753769159e-03</internalNodes>
      <leafValues>
        2.3532050848007202e-01 -2.6359620690345764e-01</leafValues></_>
    <_>
      <internalNodes>
        0 -1 125192 1.8107970245182514e-03</internalNodes>
      <leafValues>
        -1.0442322492599487e-01 5.3698498010635376e-01</leafValues></_>
    <_>
      <internalNodes>
        0 -1 108984 2.9131527990102768e-02</internalNodes>
      <leafValues>
        -5.0773984193801880e-01 1.2002905458211899e-01</leafValues></_>
    <_>
      <internalNodes>
        0 -1 80572 -3.7540351040661335e-03</internalNodes>
      <leafValues>
        2.9589554667472839e-01 -1.8884980678558350e-01</leafValues></_>
    <_>
      <internalNodes>
        0 -1 57203 1.3452596613205969e-04</internalNodes>
      <leafValues>
        1.3341954350471497e-01 -4.3476438522338867e-01</leafValues></_>
    <_>
      <internalNodes>
        0 -1 17194 -7.7911932021379471e-03</internalNodes>
      <leafValues>
        5.0543737411499023e-01 -1.1755413562059402e-01</leafValues></_>
    <_>
      <internalNodes>
        0 -1 146400 1.3389476225711405e-04</internalNodes>
      <leafValues>
        1.1403209716081619e-01 -4.8461928963661194e-01</leafValues></_>
    <_>
      <internalNodes>
        0 -1 146400 -1.3305658649187535e-04</internalNodes>
      <leafValues>
        -4.6839460730552673e-01 1.1755803227424622e-01</leafValues></_>
    <_>
      <internalNodes>
        0 -1 94117 -1.7860390245914459e-02</internalNodes>
      <leafValues>
        5.0069922208786011e-01 -1.1271712929010391e-01</leafValues></_>
    <_>
      <internalNodes>
        0 -1 84713 -1.8817940144799650e-04</internalNodes>
      <leafValues>
        -6.2430506944656372e-01 9.3411505222320557e-02</leafValues></_>
    <_>
      <internalNodes>
        0 -1 69192 -2.9181281570345163e-04</internalNodes>
      <leafValues>
        1.2249474972486496e-01 -4.2031806707382202e-01</leafValues></_>
    <_>
      <internalNodes>
        0 -1 37101 -7.0189870893955231e-03</internalNodes>
      <leafValues>
        2.2303526103496552e-01 -2.2182296216487885e-01</leafValues></_>
    <_>
      <internalNodes>
        0 -1 149026 -3.6834874190390110e-03</internalNodes>
      <leafValues>
        1.8555589020252228e-01 -2.8184601664543152e-01</leafValues></_>
    <_>
      <internalNodes>
        0 -1 41507 6.2882213387638330e-04</internalNodes>
      <leafValues>
        -2.6281720399856567e-01 2.0298454165458679e-01</leafValues></_>
    <_>
      <internalNodes>
        0 -1 126627 2.0065915305167437e-04</internalNodes>
      <leafValues>
        9.6842460334300995e-02 -5.0284314155578613e-01</leafValues></_>
    <_>
      <internalNodes>
        0 -1 93673 -1.1899224773515016e-04</internalNodes>
      <leafValues>
        -4.8303613066673279e-01 8.8013730943202972e-02</leafValues></_>
    <_>
      <internalNodes>
        0 -1 113727 -5.9752329252660275e-03</internalNodes>
      <leafValues>
        1.9249755144119263e-01 -2.4235746264457703e-01</leafValues></_>
    <_>
      <internalNodes>
        0 -1 143895 -9.9400095641613007e-03</internalNodes>
      <leafValues>
        6.9442778825759888e-01 -9.0512260794639587e-02</leafValues></_>
    <_>
      <internalNodes>
        0 -1 132608 -1.7881320673041046e-04</internalNodes>
      <leafValues>
        2.7175197005271912e-01 -1.7539592087268829e-01</leafValues></_></weakClassifiers></stage13>
</opencv_storage>
