<?xml version="1.0"?>
<opencv_storage>
<stage1>
  <maxWeakCount>6</maxWeakCount>
  <stageThreshold>-2.1360359191894531e+00</stageThreshold>
  <weakClassifiers>
    <_>
      <internalNodes>
        0 -1 6812 -4.0337622165679932e-02</internalNodes>
      <leafValues>
        -1.1254851520061493e-01 -9.0997052192687988e-01</leafValues></_>
    <_>
      <internalNodes>
        0 -1 145554 5.8907918632030487e-02</internalNodes>
      <leafValues>
        -8.1379538774490356e-01 2.8678017854690552e-01</leafValues></_>
    <_>
      <internalNodes>
        0 -1 36907 7.8488782048225403e-02</internalNodes>
      <leafValues>
        -6.8452632427215576e-01 4.9349176883697510e-01</leafValues></_>
    <_>
      <internalNodes>
        0 -1 71468 -3.8184985518455505e-02</internalNodes>
      <leafValues>
        6.3450974225997925e-01 -5.6350600719451904e-01</leafValues></_>
    <_>
      <internalNodes>
        0 -1 3402 -5.5482245981693268e-02</internalNodes>
      <leafValues>
        4.4308003783226013e-01 -5.3088897466659546e-01</leafValues></_>
    <_>
      <internalNodes>
        0 -1 139434 -1.9919956102967262e-02</internalNodes>
      <leafValues>
        2.4771051108837128e-01 -7.0789319276809692e-01</leafValues></_></weakClassifiers></stage1>
</opencv_storage>
